<?xml version="1.0"?>
<opencv_storage>
<stage4>
  <maxWeakCount>10</maxWeakCount>
  <stageThreshold>-9.0862023830413818e-01</stageThreshold>
  <weakClassifiers>
    <_>
      <internalNodes>
        0 -1 191148 -1.6244180733337998e-03</internalNodes>
      <leafValues>
        7.5372123718261719e-01 -3.1891891360282898e-01</leafValues></_>
    <_>
      <internalNodes>
        0 -1 201608 -4.2733289301395416e-03</internalNodes>
      <leafValues>
        7.7943778038024902e-01 -3.5314461588859558e-01</leafValues></_>
    <_>
      <internalNodes>
        0 -1 102594 -2.0511016249656677e-02</internalNodes>
      <leafValues>
        -8.6656945943832397e-01 2.9346719384193420e-01</leafValues></_>
    <_>
      <internalNodes>
        0 -1 91365 7.3136510327458382e-03</internalNodes>
      <leafValues>
        -7.1957188844680786e-01 2.7506470680236816e-01</leafValues></_>
    <_>
      <internalNodes>
        0 -1 202478 3.3330044243484735e-03</internalNodes>
      <leafValues>
        -3.1285288929939270e-01 7.5447660684585571e-01</leafValues></_>
    <_>
      <internalNodes>
        0 -1 174873 9.9673983640968800e-04</internalNodes>
      <leafValues>
        2.9074594378471375e-01 -7.4853217601776123e-01</leafValues></_>
    <_>
      <internalNodes>
        0 -1 221108 -3.1100751366466284e-03</internalNodes>
      <leafValues>
        7.9740273952484131e-01 -2.5466620922088623e-01</leafValues></_>
    <_>
      <internalNodes>
        0 -1 169750 2.9113141819834709e-02</internalNodes>
      <leafValues>
        2.1891309320926666e-01 -9.4785273075103760e-01</leafValues></_>
    <_>
      <internalNodes>
        0 -1 211447 -2.5707781314849854e-03</internalNodes>
      <leafValues>
        7.9416394233703613e-01 -2.5810286402702332e-01</leafValues></_>
    <_>
      <internalNodes>
        0 -1 122687 -4.6429596841335297e-03</internalNodes>
      <leafValues>
        5.5015242099761963e-01 -3.7366101145744324e-01</leafValues></_></weakClassifiers></stage4>
</opencv_storage>
