<?xml version="1.0"?>
<opencv_storage>
<stage19>
  <maxWeakCount>15</maxWeakCount>
  <stageThreshold>-1.0261169672012329e+00</stageThreshold>
  <weakClassifiers>
    <_>
      <internalNodes>
        0 -1 170636 -3.8951516151428223e-02</internalNodes>
      <leafValues>
        -8.4180790185928345e-01 3.6098310351371765e-01</leafValues></_>
    <_>
      <internalNodes>
        0 -1 152583 -2.7873534709215164e-03</internalNodes>
      <leafValues>
        5.4022675752639771e-01 -3.3420217037200928e-01</leafValues></_>
    <_>
      <internalNodes>
        0 -1 165821 -4.5917299576103687e-03</internalNodes>
      <leafValues>
        6.9483959674835205e-01 -1.6653245687484741e-01</leafValues></_>
    <_>
      <internalNodes>
        0 -1 184851 -1.1093073524534702e-02</internalNodes>
      <leafValues>
        -8.7157714366912842e-01 1.6403900086879730e-01</leafValues></_>
    <_>
      <internalNodes>
        0 -1 188841 4.9708771985024214e-04</internalNodes>
      <leafValues>
        2.0150531828403473e-01 -6.2006729841232300e-01</leafValues></_>
    <_>
      <internalNodes>
        0 -1 6116 3.0868455767631531e-02</internalNodes>
      <leafValues>
        -4.5080336928367615e-01 2.6294565200805664e-01</leafValues></_>
    <_>
      <internalNodes>
        0 -1 212797 -3.0600351747125387e-03</internalNodes>
      <leafValues>
        8.3209246397018433e-01 -1.6614811122417450e-01</leafValues></_>
    <_>
      <internalNodes>
        0 -1 212793 -3.0263180378824472e-03</internalNodes>
      <leafValues>
        7.9491400718688965e-01 -1.5808442234992981e-01</leafValues></_>
    <_>
      <internalNodes>
        0 -1 154995 3.4966180101037025e-04</internalNodes>
      <leafValues>
        2.1708664298057556e-01 -6.3161557912826538e-01</leafValues></_>
    <_>
      <internalNodes>
        0 -1 261022 -2.1345813001971692e-04</internalNodes>
      <leafValues>
        -6.2831014394760132e-01 2.1629850566387177e-01</leafValues></_>
    <_>
      <internalNodes>
        0 -1 177731 -3.1374697573482990e-03</internalNodes>
      <leafValues>
        8.1186461448669434e-01 -1.5818542242050171e-01</leafValues></_>
    <_>
      <internalNodes>
        0 -1 186461 -6.2952883308753371e-04</internalNodes>
      <leafValues>
        3.4453406929969788e-01 -4.5560038089752197e-01</leafValues></_>
    <_>
      <internalNodes>
        0 -1 150696 1.6205569729208946e-02</internalNodes>
      <leafValues>
        2.0036657154560089e-01 -6.4406681060791016e-01</leafValues></_>
    <_>
      <internalNodes>
        0 -1 187327 3.2449624268338084e-04</internalNodes>
      <leafValues>
        1.8755976855754852e-01 -6.8394470214843750e-01</leafValues></_>
    <_>
      <internalNodes>
        0 -1 180467 -8.4147497545927763e-04</internalNodes>
      <leafValues>
        3.1778925657272339e-01 -3.9246559143066406e-01</leafValues></_></weakClassifiers></stage19>
</opencv_storage>
