<?xml version="1.0"?>
<opencv_storage>
<stage15>
  <maxWeakCount>14</maxWeakCount>
  <stageThreshold>-1.0934083461761475e+00</stageThreshold>
  <weakClassifiers>
    <_>
      <internalNodes>
        0 -1 152583 -3.1164293177425861e-03</internalNodes>
      <leafValues>
        6.9930070638656616e-01 -8.7100334465503693e-02</leafValues></_>
    <_>
      <internalNodes>
        0 -1 175970 -2.5197908282279968e-02</internalNodes>
      <leafValues>
        -8.5871052742004395e-01 2.2114868462085724e-01</leafValues></_>
    <_>
      <internalNodes>
        0 -1 153564 -3.7657126784324646e-02</internalNodes>
      <leafValues>
        3.7595161795616150e-01 -4.1647133231163025e-01</leafValues></_>
    <_>
      <internalNodes>
        0 -1 210929 -3.0053234659135342e-03</internalNodes>
      <leafValues>
        4.6762543916702271e-01 -3.2860249280929565e-01</leafValues></_>
    <_>
      <internalNodes>
        0 -1 258124 3.7664503324776888e-03</internalNodes>
      <leafValues>
        -2.5496724247932434e-01 5.0556707382202148e-01</leafValues></_>
    <_>
      <internalNodes>
        0 -1 121701 2.8213146142661572e-03</internalNodes>
      <leafValues>
        -7.5265890359878540e-01 1.7256225645542145e-01</leafValues></_>
    <_>
      <internalNodes>
        0 -1 108823 1.6178334131836891e-02</internalNodes>
      <leafValues>
        1.1322246491909027e-01 -9.2618042230606079e-01</leafValues></_>
    <_>
      <internalNodes>
        0 -1 109328 -4.0524383075535297e-03</internalNodes>
      <leafValues>
        3.5275501012802124e-01 -3.9147931337356567e-01</leafValues></_>
    <_>
      <internalNodes>
        0 -1 165206 -5.8953380212187767e-03</internalNodes>
      <leafValues>
        3.5509669780731201e-01 -3.5268479585647583e-01</leafValues></_>
    <_>
      <internalNodes>
        0 -1 124739 -1.3955244794487953e-03</internalNodes>
      <leafValues>
        2.8519439697265625e-01 -4.2728573083877563e-01</leafValues></_>
    <_>
      <internalNodes>
        0 -1 166615 -9.8455641418695450e-03</internalNodes>
      <leafValues>
        -6.9219183921813965e-01 1.9726468622684479e-01</leafValues></_>
    <_>
      <internalNodes>
        0 -1 193162 2.3874235339462757e-03</internalNodes>
      <leafValues>
        -4.2914807796478271e-01 3.0518782138824463e-01</leafValues></_>
    <_>
      <internalNodes>
        0 -1 190106 -5.5567815434187651e-04</internalNodes>
      <leafValues>
        2.7636078000068665e-01 -4.6798110008239746e-01</leafValues></_>
    <_>
      <internalNodes>
        0 -1 33862 2.0747477537952363e-04</internalNodes>
      <leafValues>
        1.9390952587127686e-01 -6.2361216545104980e-01</leafValues></_></weakClassifiers></stage15>
</opencv_storage>
