<?xml version="1.0"?>
<opencv_storage>
<stage3>
  <maxWeakCount>9</maxWeakCount>
  <stageThreshold>-1.1887408494949341e+00</stageThreshold>
  <weakClassifiers>
    <_>
      <internalNodes>
        0 -1 122337 -7.8348042443394661e-03</internalNodes>
      <leafValues>
        -8.4982937574386597e-01 4.8060709238052368e-01</leafValues></_>
    <_>
      <internalNodes>
        0 -1 152583 -3.0004363507032394e-03</internalNodes>
      <leafValues>
        8.0567491054534912e-01 -3.8012534379959106e-01</leafValues></_>
    <_>
      <internalNodes>
        0 -1 165821 -2.0217243582010269e-03</internalNodes>
      <leafValues>
        6.2158501148223877e-01 -4.1388168931007385e-01</leafValues></_>
    <_>
      <internalNodes>
        0 -1 219238 1.1701965704560280e-02</internalNodes>
      <leafValues>
        2.9309669137001038e-01 -8.5696762800216675e-01</leafValues></_>
    <_>
      <internalNodes>
        0 -1 221569 -2.7503862511366606e-03</internalNodes>
      <leafValues>
        6.4019870758056641e-01 -3.7978315353393555e-01</leafValues></_>
    <_>
      <internalNodes>
        0 -1 236474 -7.7542327344417572e-03</internalNodes>
      <leafValues>
        -8.6740744113922119e-01 2.7893611788749695e-01</leafValues></_>
    <_>
      <internalNodes>
        0 -1 78551 -2.8139559552073479e-02</internalNodes>
      <leafValues>
        -7.9243946075439453e-01 2.7858442068099976e-01</leafValues></_>
    <_>
      <internalNodes>
        0 -1 829 -4.6369531750679016e-01</internalNodes>
      <leafValues>
        7.1890443563461304e-01 -3.5459417104721069e-01</leafValues></_>
    <_>
      <internalNodes>
        0 -1 175783 6.0142087750136852e-04</internalNodes>
      <leafValues>
        3.3638086915016174e-01 -7.4787729978561401e-01</leafValues></_></weakClassifiers></stage3>
</opencv_storage>
