<?xml version="1.0"?>
<opencv_storage>
<stage14>
  <maxWeakCount>12</maxWeakCount>
  <stageThreshold>-1.2489862442016602e+00</stageThreshold>
  <weakClassifiers>
    <_>
      <internalNodes>
        0 -1 153186 -4.6004401519894600e-03</internalNodes>
      <leafValues>
        6.7660909891128540e-01 -1.3064132630825043e-01</leafValues></_>
    <_>
      <internalNodes>
        0 -1 94019 1.1225096881389618e-02</internalNodes>
      <leafValues>
        2.1935912966728210e-01 -7.8972506523132324e-01</leafValues></_>
    <_>
      <internalNodes>
        0 -1 166913 -2.3700734600424767e-03</internalNodes>
      <leafValues>
        4.6823728084564209e-01 -3.2582780718803406e-01</leafValues></_>
    <_>
      <internalNodes>
        0 -1 179348 -9.1600476298481226e-04</internalNodes>
      <leafValues>
        4.7905772924423218e-01 -3.5837620496749878e-01</leafValues></_>
    <_>
      <internalNodes>
        0 -1 168469 5.1978032570332289e-04</internalNodes>
      <leafValues>
        3.1253653764724731e-01 -5.4187995195388794e-01</leafValues></_>
    <_>
      <internalNodes>
        0 -1 200542 1.3412857428193092e-02</internalNodes>
      <leafValues>
        -2.4742399156093597e-01 6.0551816225051880e-01</leafValues></_>
    <_>
      <internalNodes>
        0 -1 211447 3.8375991862267256e-03</internalNodes>
      <leafValues>
        -1.9432820379734039e-01 7.0034664869308472e-01</leafValues></_>
    <_>
      <internalNodes>
        0 -1 122119 -1.2533285655081272e-02</internalNodes>
      <leafValues>
        -9.3150234222412109e-01 1.4710529148578644e-01</leafValues></_>
    <_>
      <internalNodes>
        0 -1 156840 3.8386080414056778e-02</internalNodes>
      <leafValues>
        1.1022925376892090e-01 -9.6494400501251221e-01</leafValues></_>
    <_>
      <internalNodes>
        0 -1 202480 2.0210051443427801e-03</internalNodes>
      <leafValues>
        -3.1276482343673706e-01 4.4766253232955933e-01</leafValues></_>
    <_>
      <internalNodes>
        0 -1 154995 6.3761131605133414e-04</internalNodes>
      <leafValues>
        2.4156895279884338e-01 -7.6533699035644531e-01</leafValues></_>
    <_>
      <internalNodes>
        0 -1 197304 -6.2879163306206465e-04</internalNodes>
      <leafValues>
        -7.4653947353363037e-01 1.4399346709251404e-01</leafValues></_></weakClassifiers></stage14>
</opencv_storage>
