<?xml version="1.0"?>
<opencv_storage>
<stage16>
  <maxWeakCount>18</maxWeakCount>
  <stageThreshold>-1.2679591178894043e+00</stageThreshold>
  <weakClassifiers>
    <_>
      <internalNodes>
        0 -1 160813 5.7627465575933456e-03</internalNodes>
      <leafValues>
        -9.8660171031951904e-02 6.1094224452972412e-01</leafValues></_>
    <_>
      <internalNodes>
        0 -1 229988 2.8005787171423435e-03</internalNodes>
      <leafValues>
        -3.0913329124450684e-01 4.4031381607055664e-01</leafValues></_>
    <_>
      <internalNodes>
        0 -1 179768 2.8026942163705826e-04</internalNodes>
      <leafValues>
        2.8822886943817139e-01 -4.5530933141708374e-01</leafValues></_>
    <_>
      <internalNodes>
        0 -1 175659 1.9028803217224777e-04</internalNodes>
      <leafValues>
        1.6769339144229889e-01 -6.8039834499359131e-01</leafValues></_>
    <_>
      <internalNodes>
        0 -1 199297 2.9263546457514167e-04</internalNodes>
      <leafValues>
        1.9994102418422699e-01 -5.2653813362121582e-01</leafValues></_>
    <_>
      <internalNodes>
        0 -1 199301 2.8877484146505594e-03</internalNodes>
      <leafValues>
        -1.6485312581062317e-01 7.6455157995223999e-01</leafValues></_>
    <_>
      <internalNodes>
        0 -1 161676 -3.0420262366533279e-02</internalNodes>
      <leafValues>
        -8.3042877912521362e-01 1.2155260890722275e-01</leafValues></_>
    <_>
      <internalNodes>
        0 -1 28213 2.2582100704312325e-02</internalNodes>
      <leafValues>
        1.1092766374349594e-01 -8.0929487943649292e-01</leafValues></_>
    <_>
      <internalNodes>
        0 -1 209521 8.4609743207693100e-03</internalNodes>
      <leafValues>
        1.7629924416542053e-01 -6.8467342853546143e-01</leafValues></_>
    <_>
      <internalNodes>
        0 -1 259192 -1.2282739044167101e-04</internalNodes>
      <leafValues>
        -5.5669772624969482e-01 1.9585013389587402e-01</leafValues></_>
    <_>
      <internalNodes>
        0 -1 211935 2.2327536717057228e-03</internalNodes>
      <leafValues>
        -2.1848122775554657e-01 5.4803997278213501e-01</leafValues></_>
    <_>
      <internalNodes>
        0 -1 206357 -1.7146557569503784e-02</internalNodes>
      <leafValues>
        -8.6674219369888306e-01 1.2893190979957581e-01</leafValues></_>
    <_>
      <internalNodes>
        0 -1 212381 -1.3676190283149481e-03</internalNodes>
      <leafValues>
        5.7501405477523804e-01 -2.4210211634635925e-01</leafValues></_>
    <_>
      <internalNodes>
        0 -1 202068 6.4099038718268275e-04</internalNodes>
      <leafValues>
        -3.8934877514839172e-01 3.6972254514694214e-01</leafValues></_>
    <_>
      <internalNodes>
        0 -1 154995 -5.2587693789973855e-04</internalNodes>
      <leafValues>
        -5.9348684549331665e-01 2.1333032846450806e-01</leafValues></_>
    <_>
      <internalNodes>
        0 -1 230708 -2.3959693498909473e-03</internalNodes>
      <leafValues>
        6.3198983669281006e-01 -2.1598227322101593e-01</leafValues></_>
    <_>
      <internalNodes>
        0 -1 161545 -1.6986228525638580e-02</internalNodes>
      <leafValues>
        -8.8611835241317749e-01 1.7661754786968231e-01</leafValues></_>
    <_>
      <internalNodes>
        0 -1 140497 -1.3466461561620235e-02</internalNodes>
      <leafValues>
        2.4748167395591736e-01 -4.4355875253677368e-01</leafValues></_></weakClassifiers></stage16>
</opencv_storage>
