<?xml version="1.0"?>
<opencv_storage>
<stage1>
  <maxWeakCount>7</maxWeakCount>
  <stageThreshold>-1.3417605161666870e+00</stageThreshold>
  <weakClassifiers>
    <_>
      <internalNodes>
        0 -1 191148 -2.3177866823971272e-03</internalNodes>
      <leafValues>
        8.9622640609741211e-01 -2.9537367820739746e-01</leafValues></_>
    <_>
      <internalNodes>
        0 -1 202052 -1.4912826009094715e-03</internalNodes>
      <leafValues>
        8.0765241384506226e-01 -4.0769156813621521e-01</leafValues></_>
    <_>
      <internalNodes>
        0 -1 67840 -2.0331718027591705e-02</internalNodes>
      <leafValues>
        5.0357955694198608e-01 -6.7832070589065552e-01</leafValues></_>
    <_>
      <internalNodes>
        0 -1 123276 -5.0267567858099937e-03</internalNodes>
      <leafValues>
        3.1151252985000610e-01 -9.0846741199493408e-01</leafValues></_>
    <_>
      <internalNodes>
        0 -1 153186 -4.4375844299793243e-03</internalNodes>
      <leafValues>
        7.7953195571899414e-01 -4.1182664036750793e-01</leafValues></_>
    <_>
      <internalNodes>
        0 -1 166385 -2.4599684402346611e-03</internalNodes>
      <leafValues>
        8.5328006744384766e-01 -3.8004252314567566e-01</leafValues></_>
    <_>
      <internalNodes>
        0 -1 23112 -6.9037258625030518e-02</internalNodes>
      <leafValues>
        5.5806171894073486e-01 -5.7424300909042358e-01</leafValues></_></weakClassifiers></stage1>
</opencv_storage>
