<?xml version="1.0"?>
<opencv_storage>
<stage17>
  <maxWeakCount>19</maxWeakCount>
  <stageThreshold>-1.3474167585372925e+00</stageThreshold>
  <weakClassifiers>
    <_>
      <internalNodes>
        0 -1 113900 1.9307740032672882e-02</internalNodes>
      <leafValues>
        -1.7765043675899506e-01 5.6978231668472290e-01</leafValues></_>
    <_>
      <internalNodes>
        0 -1 231894 -1.6883793286979198e-03</internalNodes>
      <leafValues>
        4.9254703521728516e-01 -2.4678075313568115e-01</leafValues></_>
    <_>
      <internalNodes>
        0 -1 175659 -2.7945783222094178e-04</internalNodes>
      <leafValues>
        -5.3616696596145630e-01 2.2259201109409332e-01</leafValues></_>
    <_>
      <internalNodes>
        0 -1 210329 2.6819906197488308e-03</internalNodes>
      <leafValues>
        -2.9705324769020081e-01 4.4149586558341980e-01</leafValues></_>
    <_>
      <internalNodes>
        0 -1 200678 8.6315777152776718e-03</internalNodes>
      <leafValues>
        1.7084629833698273e-01 -7.8082996606826782e-01</leafValues></_>
    <_>
      <internalNodes>
        0 -1 30100 1.2459145858883858e-02</internalNodes>
      <leafValues>
        1.5171259641647339e-01 -6.7003774642944336e-01</leafValues></_>
    <_>
      <internalNodes>
        0 -1 212381 4.8439633101224899e-03</internalNodes>
      <leafValues>
        -2.3955203592777252e-01 5.0772190093994141e-01</leafValues></_>
    <_>
      <internalNodes>
        0 -1 221962 2.1996670402586460e-03</internalNodes>
      <leafValues>
        -2.1691630780696869e-01 6.2005031108856201e-01</leafValues></_>
    <_>
      <internalNodes>
        0 -1 20121 1.2731888890266418e-01</internalNodes>
      <leafValues>
        1.7275922000408173e-01 -8.0708903074264526e-01</leafValues></_>
    <_>
      <internalNodes>
        0 -1 197911 8.3172792801633477e-04</internalNodes>
      <leafValues>
        1.3334682583808899e-01 -7.0872658491134644e-01</leafValues></_>
    <_>
      <internalNodes>
        0 -1 30471 -3.6636965814977884e-03</internalNodes>
      <leafValues>
        5.4882216453552246e-01 -2.1481336653232574e-01</leafValues></_>
    <_>
      <internalNodes>
        0 -1 202480 2.3681046441197395e-03</internalNodes>
      <leafValues>
        -2.3155908286571503e-01 4.9308711290359497e-01</leafValues></_>
    <_>
      <internalNodes>
        0 -1 17755 7.0995354326441884e-04</internalNodes>
      <leafValues>
        1.6403058171272278e-01 -6.3811177015304565e-01</leafValues></_>
    <_>
      <internalNodes>
        0 -1 153430 -6.3392114825546741e-03</internalNodes>
      <leafValues>
        -9.1243052482604980e-01 1.1220955848693848e-01</leafValues></_>
    <_>
      <internalNodes>
        0 -1 213142 1.3751394581049681e-03</internalNodes>
      <leafValues>
        2.1435086429119110e-01 -4.5349743962287903e-01</leafValues></_>
    <_>
      <internalNodes>
        0 -1 230357 -2.7637488674372435e-03</internalNodes>
      <leafValues>
        5.2576202154159546e-01 -2.1824356913566589e-01</leafValues></_>
    <_>
      <internalNodes>
        0 -1 10692 2.3361244238913059e-03</internalNodes>
      <leafValues>
        -2.0207606256008148e-01 5.2988153696060181e-01</leafValues></_>
    <_>
      <internalNodes>
        0 -1 137732 4.2880356311798096e-02</internalNodes>
      <leafValues>
        1.5186800062656403e-01 -8.7441515922546387e-01</leafValues></_>
    <_>
      <internalNodes>
        0 -1 261022 6.1938777798786759e-04</internalNodes>
      <leafValues>
        1.1194812506437302e-01 -7.8700840473175049e-01</leafValues></_></weakClassifiers></stage17>
</opencv_storage>
