<?xml version="1.0"?>
<opencv_storage>
<stage6>
  <maxWeakCount>13</maxWeakCount>
  <stageThreshold>-1.5102143287658691e+00</stageThreshold>
  <weakClassifiers>
    <_>
      <internalNodes>
        0 -1 124722 1.9352654926478863e-03</internalNodes>
      <leafValues>
        -2.1798364818096161e-01 6.4563757181167603e-01</leafValues></_>
    <_>
      <internalNodes>
        0 -1 166913 -1.8926397897303104e-03</internalNodes>
      <leafValues>
        5.9873902797698975e-01 -3.2541644573211670e-01</leafValues></_>
    <_>
      <internalNodes>
        0 -1 836 -2.0983317494392395e-01</internalNodes>
      <leafValues>
        3.5203447937965393e-01 -5.5783683061599731e-01</leafValues></_>
    <_>
      <internalNodes>
        0 -1 237127 -3.0648505780845881e-03</internalNodes>
      <leafValues>
        5.8530586957931519e-01 -3.3779546618461609e-01</leafValues></_>
    <_>
      <internalNodes>
        0 -1 121322 -1.0918734595179558e-02</internalNodes>
      <leafValues>
        -9.0898287296295166e-01 1.8752311170101166e-01</leafValues></_>
    <_>
      <internalNodes>
        0 -1 190625 -2.9346796218305826e-03</internalNodes>
      <leafValues>
        5.5000472068786621e-01 -3.5327497124671936e-01</leafValues></_>
    <_>
      <internalNodes>
        0 -1 93517 2.1621249616146088e-02</internalNodes>
      <leafValues>
        2.0975360274314880e-01 -9.1069686412811279e-01</leafValues></_>
    <_>
      <internalNodes>
        0 -1 187779 -1.1964411474764347e-02</internalNodes>
      <leafValues>
        -9.2286902666091919e-01 1.3284847140312195e-01</leafValues></_>
    <_>
      <internalNodes>
        0 -1 187190 1.6932489234022796e-04</internalNodes>
      <leafValues>
        1.8799148499965668e-01 -6.8034362792968750e-01</leafValues></_>
    <_>
      <internalNodes>
        0 -1 153726 -2.9285424388945103e-03</internalNodes>
      <leafValues>
        6.1528944969177246e-01 -2.8769749402999878e-01</leafValues></_>
    <_>
      <internalNodes>
        0 -1 153172 4.0799994021654129e-03</internalNodes>
      <leafValues>
        -1.7788575589656830e-01 8.4102708101272583e-01</leafValues></_>
    <_>
      <internalNodes>
        0 -1 219129 3.8428674452006817e-03</internalNodes>
      <leafValues>
        2.7823683619499207e-01 -7.0782250165939331e-01</leafValues></_>
    <_>
      <internalNodes>
        0 -1 255468 -2.6995124295353889e-02</internalNodes>
      <leafValues>
        6.9208323955535889e-01 -2.4867725372314453e-01</leafValues></_></weakClassifiers></stage6>
</opencv_storage>
