<?xml version="1.0"?>
<opencv_storage>
<stage7>
  <maxWeakCount>13</maxWeakCount>
  <stageThreshold>-9.8059153556823730e-01</stageThreshold>
  <weakClassifiers>
    <_>
      <internalNodes>
        0 -1 157962 -1.5994332730770111e-02</internalNodes>
      <leafValues>
        5.7540601491928101e-01 -2.8363046050071716e-01</leafValues></_>
    <_>
      <internalNodes>
        0 -1 166387 1.8064496107399464e-03</internalNodes>
      <leafValues>
        -3.9476883411407471e-01 4.8680639266967773e-01</leafValues></_>
    <_>
      <internalNodes>
        0 -1 166385 -1.8657746259123087e-03</internalNodes>
      <leafValues>
        5.2490085363388062e-01 -4.2991715669631958e-01</leafValues></_>
    <_>
      <internalNodes>
        0 -1 138868 3.1715238001197577e-03</internalNodes>
      <leafValues>
        1.8144597113132477e-01 -8.0734533071517944e-01</leafValues></_>
    <_>
      <internalNodes>
        0 -1 5905 -2.3026503622531891e-02</internalNodes>
      <leafValues>
        3.6311382055282593e-01 -4.9150377511978149e-01</leafValues></_>
    <_>
      <internalNodes>
        0 -1 91716 -1.2023678980767727e-02</internalNodes>
      <leafValues>
        -7.6955121755599976e-01 1.9616414606571198e-01</leafValues></_>
    <_>
      <internalNodes>
        0 -1 95843 -2.0641112700104713e-02</internalNodes>
      <leafValues>
        2.2538995742797852e-01 -5.6112921237945557e-01</leafValues></_>
    <_>
      <internalNodes>
        0 -1 187983 2.7839979156851768e-04</internalNodes>
      <leafValues>
        2.1058352291584015e-01 -7.7695941925048828e-01</leafValues></_>
    <_>
      <internalNodes>
        0 -1 29781 -2.6500541716814041e-03</internalNodes>
      <leafValues>
        6.3885945081710815e-01 -2.8819486498832703e-01</leafValues></_>
    <_>
      <internalNodes>
        0 -1 42663 8.2545904442667961e-03</internalNodes>
      <leafValues>
        -4.8739299178123474e-01 3.0823016166687012e-01</leafValues></_>
    <_>
      <internalNodes>
        0 -1 255829 -9.8570510745048523e-03</internalNodes>
      <leafValues>
        7.8918510675430298e-01 -1.8740245699882507e-01</leafValues></_>
    <_>
      <internalNodes>
        0 -1 202052 -1.7779517220333219e-03</internalNodes>
      <leafValues>
        5.0760996341705322e-01 -2.8825762867927551e-01</leafValues></_>
    <_>
      <internalNodes>
        0 -1 190653 -2.0609972998499870e-03</internalNodes>
      <leafValues>
        3.6723762750625610e-01 -4.6894708275794983e-01</leafValues></_></weakClassifiers></stage7>
</opencv_storage>
